digraph Tree {
node [shape=box, style="filled", color="black", fontname="helvetica"] ;
edge [fontname="helvetica"] ;
0 [label="gamma <= 0.89\nsquared_error = 7.744\nsamples = 27\nvalue = 43.481", fillcolor="#eeab7a"] ;
1 [label="alpha <= 0.215\nsquared_error = 3.784\nsamples = 18\nvalue = 44.91", fillcolor="#ea985e"] ;
0 -> 1 [labeldistance=2.5, labelangle=45, headlabel="True"] ;
2 [label="epsilon <= 0.029\nsquared_error = 0.508\nsamples = 6\nvalue = 43.027", fillcolor="#efb084"] ;
1 -> 2 ;
3 [label="squared_error = 0.23\nsamples = 2\nvalue = 43.85", fillcolor="#eda673"] ;
2 -> 3 ;
4 [label="squared_error = 0.138\nsamples = 4\nvalue = 42.615", fillcolor="#f0b68c"] ;
2 -> 4 ;
5 [label="epsilon <= 0.076\nsquared_error = 2.762\nsamples = 12\nvalue = 45.852", fillcolor="#e78c4b"] ;
1 -> 5 ;
6 [label="squared_error = 1.385\nsamples = 8\nvalue = 46.732", fillcolor="#e58139"] ;
5 -> 6 ;
7 [label="squared_error = 0.86\nsamples = 4\nvalue = 44.09", fillcolor="#eca36e"] ;
5 -> 7 ;
8 [label="epsilon <= 0.076\nsquared_error = 3.42\nsamples = 9\nvalue = 40.624", fillcolor="#f5cfb4"] ;
0 -> 8 [labeldistance=2.5, labelangle=-45, headlabel="False"] ;
9 [label="alpha <= 0.215\nsquared_error = 2.31\nsamples = 6\nvalue = 41.18", fillcolor="#f4c8a9"] ;
8 -> 9 ;
10 [label="squared_error = 0.23\nsamples = 2\nvalue = 40.05", fillcolor="#f7d7c0"] ;
9 -> 10 ;
11 [label="squared_error = 2.392\nsamples = 4\nvalue = 41.745", fillcolor="#f2c19d"] ;
9 -> 11 ;
12 [label="alpha <= 0.44\nsquared_error = 3.79\nsamples = 3\nvalue = 39.513", fillcolor="#f8deca"] ;
8 -> 12 ;
13 [label="squared_error = 0.563\nsamples = 2\nvalue = 40.82", fillcolor="#f5cdb0"] ;
12 -> 13 ;
14 [label="squared_error = -0.0\nsamples = 1\nvalue = 36.9", fillcolor="#ffffff"] ;
12 -> 14 ;
}
